10 100
0 -0.0049824193 0.0017409748 -0.002931317 -0.0037097996 -0.0016175455 0.00087108836 -0.0012807082 0.0024069804 0.001466962 -0.0047384743 -0.004515334 -0.0023455434 7.556984e-05 0.0015760306 -0.003231855 0.0042038867 -0.0020378672 0.0031797811 -0.0013470196 0.0034392448 -0.0025224464 -0.0023615884 0.0037296517 0.0038732123 0.004303228 0.0041834665 -0.00078284135 -0.0021533894 -0.0022115372 0.0041184425 -0.00042369356 -0.0019256126 0.0036885133 0.0017758957 0.0045734337 0.002216064 0.004911476 -0.0031432388 -0.000253818 0.002711731 0.00019836007 -0.0016847062 -0.00028612558 0.0032747919 -0.004028382 -0.003631339 0.00012390502 0.0020122118 -0.0032001059 0.0042213844 0.00024212478 0.0036520157 -0.0046730293 2.9711518e-05 0.0026634233 0.001232117 0.0008467133 -0.0012200235 -0.0031282962 0.00027760072 0.0019073645 0.0019855401 -0.0023819816 -0.003698586 -0.00030471943 -9.115599e-05 -0.0039366353 -0.0042215628 -0.0014556008 0.0036829608 -0.001650986 -0.002255919 -0.00218468 -0.0041453782 -0.0016008455 0.001551203 -0.002708032 -0.00014783628 0.0019528763 -0.0041953833 1.9087922e-05 -0.0047224597 0.0015883548 -0.001282671 -0.002073394 -0.004260703 -0.0031896203 -0.0044651437 0.0031597093 0.00040248875 0.0005569621 -0.0012200195 0.0028877957 0.0031665424 -0.0046644825 0.0006928779 0.0038585206 -0.00010712026 -0.0002506147 -0.0015327667
1 -0.00021875603 0.00062796474 0.0012905658 0.0003466783 0.000930713 -0.0043738633 -0.0041346145 -0.0046858173 0.003590582 0.004882808 0.0012308802 0.0028077513 -0.004245474 0.0010778308 -0.0041743154 -0.0003931094 0.0026831594 -0.0034324192 -0.00097425 0.0018722275 0.003948382 -0.0036879175 0.000644207 -0.003790636 0.0008094995 0.004839858 0.0042001624 0.0018417472 0.003022451 -0.000394959 -0.0013787257 0.0010578809 0.0030920282 -0.003800553 -7.9398975e-05 -0.0046002003 -0.0032549114 0.00094123976 -0.00045892736 0.004632389 -0.0039645243 -0.002124112 0.0021471106 -0.0033414667 0.0045423238 0.002439214 0.0035348423 0.0038554445 -0.0030976725 -0.0040096547 0.00065117236 0.0011812998 -0.0037326764 0.0015118928 0.0027252352 -0.0017790592 -0.0010320325 0.004928508 -0.0030731666 -0.0023201131 -0.0016513104 0.0010263147 0.0010505514 0.004588682 0.0036174254 -0.0012037735 -0.0004902594 0.003922479 -0.0038075815 0.0039575575 0.004832604 -0.0035453779 -0.0014720606 -0.0028163658 -0.001063969 0.002747368 0.0019381545 0.0028482545 0.002448054 -0.0025887275 -0.0037624622 -0.00023886748 0.0036854185 -0.0017476641 -0.0002925694 -0.0020614236 0.0010935473 0.0037177373 0.004774778 -0.003178405 -0.00024601026 0.0012802416 0.0038606804 0.0004509203 -0.0048741107 0.0034220275 -0.0018649197 -0.0018416923 0.002746616 0.0022069449
2 -0.0011453431 -0.0003967299 -0.0007221345 0.0012255362 0.0046026716 0.0036056545 -0.0016808826 -0.004837553 -0.0018530088 -0.003247114 -0.0031901575 -0.0031710856 -0.004865076 0.0038075885 -0.0021917825 -0.0007119961 -0.004366393 0.0011677942 0.0048530307 -0.0039375247 -0.000721755 -0.0012683314 -0.0020505618 0.0027236603 0.0018202253 -0.0030763764 -0.0019771582 0.00080239726 -0.0016173017 -0.0016438274 -0.0015390837 0.0009359382 -0.0047874493 -0.0006267731 -0.0010631783 -0.0040822993 -0.0027034325 -0.004604919 0.00095483614 -0.00175906 0.0039586993 -0.0046125627 0.0032172753 -0.0015304219 0.0014910852 -0.0035853386 0.00407523 -0.004451679 -0.004337043 0.0017195619 0.004325063 -0.001852659 -0.003806313 0.0002644495 0.0044691935 0.00027212687 0.0044305036 -0.0018426769 0.003249295 0.0028511453 -0.0010559843 0.0041496325 -0.0030533003 2.13678e-05 -0.0001483201 0.004418725 0.0037082909 0.0031442316 -0.0001713736 -0.0048724627 -0.0004925048 0.0011295313 0.004560356 0.0028428556 0.004693703 -0.0031186205 -0.0016892881 0.0044784816 -0.0016208685 0.0042173173 0.0044077206 0.00068711676 0.0005274499 -0.0012057149 0.0037397873 -0.0049232338 0.0011840356 -0.003133738 0.0024584187 -0.0040811067 -0.00044814218 0.002463941 0.00080865156 0.0025936984 -0.0038705438 0.0029429952 0.0029728506 -0.0031578965 0.0034347503 -0.0041111796
3 -0.0036248267 0.0018473719 -0.0031842506 -0.0029330617 -0.0007283641 0.0029794136 0.0037610354 -0.0038571334 -0.0009669713 0.0021574544 0.0018987511 -0.00030213362 0.001472733 0.00346326 0.004886048 0.0016647517 -0.0027018422 0.0017478219 0.0034871027 -0.0014944111 0.001863827 0.00040565664 -0.0023405831 0.0015159124 0.0027457308 -0.0036123227 -0.002946553 -0.004166969 0.0019013472 -0.0006485684 -0.0026679575 -0.00019672047 0.003729701 0.0021978347 -0.0005568289 -0.003461951 0.0013968349 0.0013472931 0.0027827434 -0.0003377651 0.0038718088 0.00028425455 -0.0007820199 -0.00047324598 0.0026179464 0.0029872078 -0.0035342025 0.0016844366 0.0013786731 0.0021270658 0.0036799032 0.004450078 -0.00021102745 -0.00312834 -0.00471937 -0.001027491 0.00078194356 0.0014503808 0.00263484 0.0027388781 -0.0011661057 0.004847248 -0.0048685474 8.565001e-05 -0.0016474831 0.0029939897 -0.0016903186 0.0017249375 -0.00056843413 -0.0021786385 -0.00040891813 -0.001668825 -0.0022973882 -0.0035407585 0.0028636502 0.0048590535 -0.0038073522 -0.0025598274 -0.0006124298 0.0038979072 0.0041494323 -0.003020044 -0.0002790331 -0.003353198 -0.0028213358 -0.0042578387 -0.0014992368 -0.00085987616 -0.00032629305 -0.0018817883 -0.004759685 0.002536226 -0.0025000977 0.0036205882 0.0031815767 -0.0019915712 0.0036792215 -0.0038682572 0.0010033716 0.00013953494
4 0.00062562386 -0.00012083957 -0.0010691481 -2.6790425e-05 -0.0017696542 -0.003319493 0.0007163859 0.004360782 -0.0048874244 -0.0028424715 -0.0026441233 -0.0031831758 -0.0039733592 0.0012948955 0.0011005802 0.0006150729 0.0026863366 -0.0017637413 0.003671418 -0.0013785153 0.0008689249 -0.00049525267 -0.002717127 0.00093944324 -0.0027691547 0.002748279 -0.0029201035 -0.003592863 0.0030066017 -0.00051867915 0.0046060802 -0.00054033985 -0.00026306696 0.0028237496 -0.0049145147 -0.000919709 0.0045836754 -0.001589936 0.0043919208 0.004230777 0.0010899645 -0.00489365 0.00055815093 -0.0033653704 0.0025574611 0.0020834906 -0.00031316048 0.0007547396 -0.0018669218 0.0045890054 -0.001419351 -0.0025158643 0.0040241964 0.004056261 -0.0018291771 -0.0001244261 -0.0040485626 0.003373526 6.77472e-05 -0.0027551663 -0.0020287102 -0.004751664 0.0027312636 -0.0018804753 -0.0028342593 0.0014335727 -0.0030141312 0.000799824 0.00036948454 -0.0012063999 0.004632093 0.0036637755 -0.0005693366 -0.00026137894 -0.00018110871 0.00032951217 0.004201779 -0.00047687488 0.003434416 0.0041466244 -0.0012267095 -0.0028488694 -0.0042473106 -0.003307647 -0.002326951 -0.0032449192 0.0027815485 -0.002325695 -0.0014347071 -0.00087176636 0.0018719779 -0.0037609125 -0.004537193 0.0023869541 -0.0017753667 -0.0017042249 0.0005932902 0.00030799583 0.0014642803 0.00413902
5 0.0022937553 -0.0011407332 0.0010686708 -0.003137129 -0.004385193 0.0015187813 0.000116677955 -0.003703653 0.00040897075 -0.002193462 -0.000958411 -0.00019921921 -0.0032885235 0.0042917263 0.0046515604 -0.0039688526 0.0048771426 -0.0046069035 0.0046914956 0.003171999 0.00010596216 -0.001957873 -0.0012017714 0.001039716 0.0032990584 0.00048341695 0.0027471907 0.0012163818 0.0036692843 0.0035957862 0.0011937236 0.0048942696 0.0012245886 -0.0026016748 0.0016506435 0.00020309864 -0.0011485326 -0.00032924255 -0.0006541596 0.0040418096 -0.0016141706 -0.00249542 0.001723737 -0.0013850599 -0.00012717722 -0.0015847355 0.0006482722 0.0029665027 -0.00051978603 1.9803178e-05 0.0045895744 -0.0044166003 -0.0049298625 -0.0009495849 -0.000753121 -0.0045772456 0.0020246762 -0.0021828497 -0.0028542732 -0.0047105793 0.0023544873 0.0042257784 0.00087874336 0.0021915883 0.00030731875 -0.0016226005 0.0013650381 0.0014400082 -0.0039396035 0.0046920925 -0.0025470597 -0.0030056024 -0.0002603759 -0.0047226427 0.0032874504 0.0034657195 0.0030088313 -0.0014731502 -0.0037561583 0.0002968479 0.0011334722 -0.00092809554 -0.002546609 0.003945997 0.0038860403 0.0014648559 0.004227518 -0.0009905756 -0.0011960585 0.0008811699 0.0048471494 -0.0046776757 0.0016017449 0.0015638047 0.0036285333 0.004144133 -0.0048827413 -0.0021818238 0.001152507 0.0031680977
6 0.0049050655 -0.0042265197 0.0034772595 -0.0007742788 0.004209852 -0.0025837373 -0.0009842161 0.0041072387 -0.0011802083 -0.004306935 -0.0047464743 -0.0034764963 0.0005976069 -0.0029936545 -0.004184674 0.00470319 -0.0041687 0.0041210204 -0.004611424 -0.0045391563 0.004497017 -0.004459356 -0.0036149751 0.0024557947 0.0032003643 0.0039388286 0.0001715147 -0.0026641856 0.00070525333 0.00087706326 0.00034497632 -0.000229639 -0.00066613173 0.00042791432 0.00083568227 0.0027977834 0.0012635528 0.00063495943 -0.0015532554 -0.0049370485 0.0042865286 0.0035653915 0.0027218717 -0.0045647556 -4.9379654e-05 0.0047618533 0.0023246296 0.004024757 -0.00015000999 0.0012599574 0.0039347867 0.0002879924 -0.0002570413 0.00028888695 -0.0048411046 0.0007469277 0.0016391957 -0.003224967 0.00088785775 0.0042493446 0.0016265837 0.0033186218 0.003948883 0.00038790144 0.0047908137 -0.004262205 -0.003373614 -0.0010395767 0.001063087 0.0007514162 0.0007274966 -0.0032718955 0.001720259 -0.0016801923 0.00307047 -0.0009936527 0.001123236 0.0030326797 0.00023040408 0.0009380523 0.003703826 0.003426605 0.0016733119 -0.0041690734 0.00085098855 0.004684462 0.0031095687 0.0028176615 -0.0026734238 0.0039046379 -0.00089462474 -0.0044963625 0.0044538137 -0.004197511 0.00038397918 -0.003957798 0.0029308219 0.00087685185 -0.00080861524 -0.004836366
7 0.0023793993 0.0041536344 -0.0018312102 0.002492066 0.0009229467 0.0035284879 -0.0012804896 0.0033213096 -0.0008742921 0.0035994174 0.003102826 -0.0047916137 0.0017340668 0.002024517 -0.004613404 0.0016964851 -0.003896687 -0.00054605445 -0.0021706254 -0.004711531 -0.0030864596 0.0046642264 0.0018901904 -0.001483667 -0.004278382 -0.0030569916 -0.004789825 0.0044997744 0.0010204855 -0.0040643513 -0.0035513055 0.00093631307 -0.0032659601 -0.00022581266 -0.00013398984 -0.004907057 -0.0015566926 -0.0014090908 0.00379573 0.00016117236 -0.0035354076 -0.0022957742 -0.0030965526 0.0034175497 0.0012307912 -0.0036946463 0.0019296454 0.00076277275 0.0016490906 -0.0023122418 -0.00018073665 0.004804057 -0.004057092 -0.0006607743 -0.0012126989 0.00024557067 0.004749109 -0.0027345584 0.0017966614 0.0042204093 0.0029036934 0.0019805483 0.001990044 -0.0037833196 0.0036393264 -0.0020447404 -0.0029233599 -0.0022735524 -0.0046286243 -0.0009247614 -0.0010879128 0.0028775875 0.004811639 -0.0035393613 -0.0016076947 -0.0013605249 0.00067638047 0.00415768 -0.0007334305 -0.0028586655 0.0036099106 0.0020550494 0.0011301665 0.0015595919 0.0008313898 0.0014025448 -0.0016302215 -0.0029259378 -0.004510576 -0.004481443 -0.001121493 0.0007951092 -0.0043982486 -0.0030117023 0.0032013394 -0.0020503008 2.8107315e-05 -0.0029631578 0.0010535358 0.00038591493
8 0.0042486116 -0.0010032933 0.00024068961 0.0005816198 -0.0023980534 0.004053631 0.0044273147 -0.0035609126 0.0013927035 0.00043573556 0.002560657 -0.002119801 0.004086743 -0.0004260582 0.0005187732 0.004706242 -0.0014722974 0.0011312459 -0.004721604 -0.0039706444 0.0018985821 -0.0037501138 0.0016255802 -0.0029576265 0.002392992 0.001366775 -0.0022386825 0.0028892346 -0.0048287385 -0.0035982167 -0.0011221331 0.001802986 0.0008862186 0.00017602183 -0.002799992 -0.0016652965 0.0047131022 -0.00011125021 -3.239466e-05 0.0016222261 -0.0002723313 -0.00014162622 0.0027568797 0.0025940365 -0.0027648562 -0.00045141438 0.0033354973 0.0005127038 -0.0044465684 -0.00275734 -0.004804009 -0.0038136547 -0.0030800463 0.0009348816 -0.0009274711 -0.0043225633 0.0042935843 0.002530654 -0.004775939 -0.0028323673 -0.0020827043 -0.004583048 -0.003971069 -0.00045342697 -0.0008669924 0.00012041349 0.0004381095 0.0048934296 -0.00044260966 0.0045696115 -0.0025937539 0.0040579643 0.00013987161 0.00061731273 -0.003981129 -0.002333917 0.0047251135 -0.0020367675 0.0035801083 0.00043956703 0.0005953801 0.00334201 6.761402e-07 0.002484309 -0.0038125336 -0.002887026 0.00043333368 0.0032567205 -0.0015689682 -0.0006546341 -0.001070689 -0.00218269 0.0013108212 -0.001308043 -0.0027746046 0.0028777402 0.0013502878 -0.0022193855 0.0032907017 -0.0026423836
9 -0.0013125688 -0.0031770817 -0.00021785079 0.0025905068 -0.00048974156 0.0037831506 0.0031618662 0.0008535646 0.004194542 0.0046657063 -0.00071797706 0.0039330088 -0.002663074 -0.0046260417 -0.0037521548 0.003521095 -0.0033212553 0.00046761474 -9.697676e-05 0.0012168367 -0.00058315694 0.00018690061 -0.0035587335 9.3004666e-05 -0.0046975324 -0.0024834257 0.0044912947 0.004696075 0.00060701 -0.0013811279 -0.0001916308 -0.0017030805 0.0022281301 -0.0031984798 0.00032145064 -0.0032876525 0.002370819 -0.00013865577 0.003241334 0.0044059576 0.0038860766 0.003912097 -0.0030754572 0.0038535148 0.00058781495 -0.0020408498 -0.004581788 -0.00058591645 -0.00044163084 -0.004664869 -0.004919784 -0.004116959 -0.0036539272 -0.0030904878 -0.0021063644 0.0020508328 -0.00112566 0.00038536824 0.0045409603 0.0034917556 -0.00076539814 0.0014937888 0.0006207698 0.0007226062 -0.0044176695 -0.0030407952 -0.0028365247 -0.0006826329 0.000929025 -0.004046439 -0.0002856548 -0.0027748619 0.0035448438 -0.00086571975 -0.0014064736 -0.0043557575 0.0016277544 -0.0040835543 0.002634279 0.004060871 0.0043970514 -0.002949118 -0.0025469202 -0.0046714037 0.0014994494 0.0024598558 -0.0049523716 0.0024544839 -0.0014470583 0.0012707994 -0.0046773213 0.0024980903 0.0030364357 -0.0028047455 0.004831195 0.0025168466 -2.3088418e-05 -0.0014464122 0.0020869463 0.0036503533
